digraph Tree {
node [shape=box, style="filled, rounded", color="black", fontname="helvetica"] ;
edge [fontname="helvetica"] ;
0 [label=<current_event &le; 1.32<br/>gini = 0.938<br/>samples = 43072<br/>value = [2692, 2692, 2692, 2692, 2692, 2692, 2692, 2692, 2692<br/>2692, 2692, 2692, 2692, 2692, 2692, 2692]<br/>class = Admission IC>, fillcolor="#ffffff"] ;
1 [label=<event_position &le; -0.603<br/>gini = 0.933<br/>samples = 40383<br/>value = [2692.0, 2689.0, 2688.0, 2692.0, 2692.0, 2692.0, 2692.0<br/>2692.0, 2692.0, 2691.0, 2692.0, 2692.0, 2692.0, 2692.0<br/>2692.0, 11.0]<br/>class = Admission IC>, fillcolor="#ffffff"] ;
0 -> 1 [labeldistance=2.5, labelangle=45, headlabel="True"] ;
2 [label=<current_event &le; -0.572<br/>gini = 0.695<br/>samples = 7361<br/>value = [0, 0, 53, 2446, 2103, 2472, 17, 112, 89, 69, 0<br/>0, 0, 0, 0, 0]<br/>class = ER Triage>, fillcolor="#fefffe"] ;
1 -> 2 ;
3 [label=<current_event &le; -0.887<br/>gini = 0.422<br/>samples = 3310<br/>value = [0, 0, 9, 716, 24, 2411, 0, 78, 41, 31, 0, 0, 0<br/>0, 0, 0]<br/>class = ER Triage>, fillcolor="#7eee9e"] ;
2 -> 3 ;
4 [label="(...)", fillcolor="#C0C0C0"] ;
3 -> 4 ;
5 [label="(...)", fillcolor="#C0C0C0"] ;
3 -> 5 ;
6 [label=<event_position &le; -0.662<br/>gini = 0.554<br/>samples = 4051<br/>value = [0, 0, 44, 1730, 2079, 61, 17, 34, 48, 38, 0, 0<br/>0, 0, 0, 0]<br/>class = ER Sepsis Triage>, fillcolor="#e3fbe1"] ;
2 -> 6 ;
7 [label="(...)", fillcolor="#C0C0C0"] ;
6 -> 7 ;
8 [label="(...)", fillcolor="#C0C0C0"] ;
6 -> 8 ;
9 [label=<event_position &le; -0.309<br/>gini = 0.922<br/>samples = 33022<br/>value = [2692, 2689, 2635, 246, 589, 220, 2675, 2580, 2603<br/>2622, 2692, 2692, 2692, 2692, 2692, 11]<br/>class = Admission IC>, fillcolor="#ffffff"] ;
1 -> 9 ;
10 [label=<unique_activities &le; -0.054<br/>gini = 0.845<br/>samples = 10465<br/>value = [401.0, 435.0, 840.0, 246.0, 589.0, 215.0, 2563.0, 2458.0<br/>1483.0, 781.0, 103.0, 244.0, 0.0, 107.0, 0.0, 0.0]<br/>class = IV Antibiotics>, fillcolor="#fcfffe"] ;
9 -> 10 ;
11 [label="(...)", fillcolor="#C0C0C0"] ;
10 -> 11 ;
12 [label="(...)", fillcolor="#C0C0C0"] ;
10 -> 12 ;
13 [label=<event_position &le; -0.25<br/>gini = 0.898<br/>samples = 22557<br/>value = [2291.0, 2254.0, 1795.0, 0.0, 0.0, 5.0, 112.0, 122.0<br/>1120.0, 1841.0, 2589.0, 2448.0, 2692.0, 2585.0, 2692.0<br/>11.0]<br/>class = Release C>, fillcolor="#ffffff"] ;
9 -> 13 ;
14 [label="(...)", fillcolor="#C0C0C0"] ;
13 -> 14 ;
15 [label="(...)", fillcolor="#C0C0C0"] ;
13 -> 15 ;
16 [label=<current_event &le; 2.897<br/>gini = 0.006<br/>samples = 2689<br/>value = [0.0, 3.0, 4.0, 0.0, 0.0, 0.0, 0.0, 0.0, 0.0, 1.0<br/>0.0, 0.0, 0.0, 0.0, 0.0, 2681.0]<br/>class = Return ER>, fillcolor="#e5403a"] ;
0 -> 16 [labeldistance=2.5, labelangle=-45, headlabel="False"] ;
17 [label=<trace_length &le; -0.535<br/>gini = 0.004<br/>samples = 2686<br/>value = [0, 3, 1, 0, 0, 0, 0, 0, 0, 1, 0, 0, 0, 0<br/>0, 2681]<br/>class = Return ER>, fillcolor="#e53f39"] ;
16 -> 17 ;
18 [label=<current_event &le; 1.636<br/>gini = 0.058<br/>samples = 100<br/>value = [0, 3, 0, 0, 0, 0, 0, 0, 0, 0, 0, 0, 0, 0<br/>0, 97]<br/>class = Return ER>, fillcolor="#e6453f"] ;
17 -> 18 ;
19 [label="(...)", fillcolor="#C0C0C0"] ;
18 -> 19 ;
20 [label="(...)", fillcolor="#C0C0C0"] ;
18 -> 20 ;
21 [label=<unique_activities &le; 0.281<br/>gini = 0.002<br/>samples = 2586<br/>value = [0, 0, 1, 0, 0, 0, 0, 0, 0, 1, 0, 0, 0, 0<br/>0, 2584]<br/>class = Return ER>, fillcolor="#e53f39"] ;
17 -> 21 ;
22 [label="(...)", fillcolor="#C0C0C0"] ;
21 -> 22 ;
23 [label="(...)", fillcolor="#C0C0C0"] ;
21 -> 23 ;
24 [label=<gini = 0.0<br/>samples = 3<br/>value = [0, 0, 3, 0, 0, 0, 0, 0, 0, 0, 0, 0, 0, 0<br/>0, 0]<br/>class = CRP>, fillcolor="#c8e539"] ;
16 -> 24 ;
}