digraph Tree {
node [shape=box, style="filled, rounded", color="black", fontname="helvetica"] ;
edge [fontname="helvetica"] ;
0 [label=<current_event &le; 1.32<br/>gini = 0.938<br/>samples = 43072<br/>value = [2692, 2692, 2692, 2692, 2692, 2692, 2692, 2692, 2692<br/>2692, 2692, 2692, 2692, 2692, 2692, 2692]<br/>class = Admission IC>, fillcolor="#ffffff"] ;
1 [label=<dept_changes &le; -1.35<br/>gini = 0.933<br/>samples = 40383<br/>value = [2692.0, 2689.0, 2688.0, 2692.0, 2692.0, 2692.0, 2692.0<br/>2692.0, 2692.0, 2691.0, 2692.0, 2692.0, 2692.0, 2692.0<br/>2692.0, 11.0]<br/>class = Admission IC>, fillcolor="#ffffff"] ;
0 -> 1 [labeldistance=2.5, labelangle=45, headlabel="True"] ;
2 [label=<SIRSCritLeucos &le; -0.447<br/>gini = 0.538<br/>samples = 5326<br/>value = [0.0, 0.0, 16.0, 2639.0, 26.0, 2475.0, 27.0, 90.0, 30.0<br/>23.0, 0.0, 0.0, 0.0, 0.0, 0.0, 0.0]<br/>class = ER Registration>, fillcolor="#f8fef4"] ;
1 -> 2 ;
3 [label=<trace_length &le; -0.535<br/>gini = 0.115<br/>samples = 2425<br/>value = [0, 0, 8, 0, 19, 2280, 0, 78, 26, 14, 0, 0, 0<br/>0, 0, 0]<br/>class = ER Triage>, fillcolor="#45e773"] ;
2 -> 3 ;
4 [label="(...)", fillcolor="#C0C0C0"] ;
3 -> 4 ;
5 [label="(...)", fillcolor="#C0C0C0"] ;
3 -> 5 ;
6 [label=<SIRSCritLeucos &le; 9.068<br/>gini = 0.168<br/>samples = 2901<br/>value = [0.0, 0.0, 8.0, 2639.0, 7.0, 195.0, 27.0, 12.0, 4.0<br/>9.0, 0.0, 0.0, 0.0, 0.0, 0.0, 0.0]<br/>class = ER Registration>, fillcolor="#94e84c"] ;
2 -> 6 ;
7 [label="(...)", fillcolor="#C0C0C0"] ;
6 -> 7 ;
8 [label="(...)", fillcolor="#C0C0C0"] ;
6 -> 8 ;
9 [label=<event_position &le; -0.603<br/>gini = 0.924<br/>samples = 35057<br/>value = [2692.0, 2689.0, 2672.0, 53.0, 2666.0, 217.0, 2665.0<br/>2602.0, 2662.0, 2668.0, 2692.0, 2692.0, 2692.0, 2692.0<br/>2692.0, 11.0]<br/>class = Admission IC>, fillcolor="#ffffff"] ;
1 -> 9 ;
10 [label=<Leucocytes_last &le; -0.616<br/>gini = 0.152<br/>samples = 2257<br/>value = [0.0, 0.0, 37.0, 0.0, 2077.0, 16.0, 0.0, 22.0, 59.0<br/>46.0, 0.0, 0.0, 0.0, 0.0, 0.0, 0.0]<br/>class = ER Sepsis Triage>, fillcolor="#56e749"] ;
9 -> 10 ;
11 [label="(...)", fillcolor="#C0C0C0"] ;
10 -> 11 ;
12 [label="(...)", fillcolor="#C0C0C0"] ;
10 -> 12 ;
13 [label=<time_since_start &le; -0.375<br/>gini = 0.921<br/>samples = 32800<br/>value = [2692, 2689, 2635, 53, 589, 201, 2665, 2580, 2603<br/>2622, 2692, 2692, 2692, 2692, 2692, 11]<br/>class = Admission IC>, fillcolor="#ffffff"] ;
9 -> 13 ;
14 [label="(...)", fillcolor="#C0C0C0"] ;
13 -> 14 ;
15 [label="(...)", fillcolor="#C0C0C0"] ;
13 -> 15 ;
16 [label=<dept_changes &le; -0.025<br/>gini = 0.006<br/>samples = 2689<br/>value = [0.0, 3.0, 4.0, 0.0, 0.0, 0.0, 0.0, 0.0, 0.0, 1.0<br/>0.0, 0.0, 0.0, 0.0, 0.0, 2681.0]<br/>class = Return ER>, fillcolor="#e5403a"] ;
0 -> 16 [labeldistance=2.5, labelangle=-45, headlabel="False"] ;
17 [label=<gini = 0.0<br/>samples = 3<br/>value = [0, 3, 0, 0, 0, 0, 0, 0, 0, 0, 0, 0, 0, 0<br/>0, 0]<br/>class = Admission NC>, fillcolor="#e5c039"] ;
16 -> 17 ;
18 [label=<current_event &le; 2.897<br/>gini = 0.004<br/>samples = 2686<br/>value = [0, 0, 4, 0, 0, 0, 0, 0, 0, 1, 0, 0, 0, 0<br/>0, 2681]<br/>class = Return ER>, fillcolor="#e53f39"] ;
16 -> 18 ;
19 [label=<time_since_start &le; 2.225<br/>gini = 0.001<br/>samples = 2683<br/>value = [0, 0, 1, 0, 0, 0, 0, 0, 0, 1, 0, 0, 0, 0<br/>0, 2681]<br/>class = Return ER>, fillcolor="#e53f39"] ;
18 -> 19 ;
20 [label="(...)", fillcolor="#C0C0C0"] ;
19 -> 20 ;
21 [label="(...)", fillcolor="#C0C0C0"] ;
19 -> 21 ;
22 [label=<gini = 0.0<br/>samples = 3<br/>value = [0, 0, 3, 0, 0, 0, 0, 0, 0, 0, 0, 0, 0, 0<br/>0, 0]<br/>class = CRP>, fillcolor="#c8e539"] ;
18 -> 22 ;
}